<?xml version="1.0"?>
<opencv_storage>
<cascade>
  <stageType>BOOST</stageType>
  <featureType>LBP</featureType>
  <height>32</height>
  <width>32</width>
  <stageParams>
    <boostType>GAB</boostType>
    <minHitRate>9.9900001287460327e-001</minHitRate>
    <maxFalseAlarm>5.0000000000000000e-001</maxFalseAlarm>
    <weightTrimRate>9.4999998807907104e-001</weightTrimRate>
    <maxDepth>1</maxDepth>
    <maxWeakCount>100</maxWeakCount></stageParams>
  <featureParams>
    <maxCatCount>256</maxCatCount></featureParams>
  <stageNum>18</stageNum>
  <stages>
    <!-- stage 0 -->
    <_>
      <maxWeakCount>3</maxWeakCount>
      <stageThreshold>-1.1904102563858032e+000</stageThreshold>
      <weakClassifiers>
        <_>
          <internalNodes>
            0 -1 81 -1 -4161 -2127173 -21845 -65 -5125 -21845 -21845</internalNodes>
          <leafValues>
            -8.5745662450790405e-001 9.2729473114013672e-001</leafValues></_>
        <_>
          <internalNodes>
            0 -1 157 -723716920 -724238852 -608436745 -33554433
            -656802592 -589437443 -2097153 -1</internalNodes>
          <leafValues>
            -9.1098195314407349e-001 6.6902679204940796e-001</leafValues></_>
        <_>
          <internalNodes>
            0 -1 36 -1 1072661231 -1207959553 791621259 -67108865
            -275473 -1 804220927</internalNodes>
          <leafValues>
            -8.8146382570266724e-001 5.7802838087081909e-001</leafValues></_></weakClassifiers></_>
    <!-- stage 1 -->
    <_>
      <maxWeakCount>6</maxWeakCount>
      <stageThreshold>-1.9284068346023560e+000</stageThreshold>
      <weakClassifiers>
        <_>
          <internalNodes>
            0 -1 81 -1 -2622497 -679237 -152901 -2097217 -8519713 -21829
            -21829</internalNodes>
          <leafValues>
            -8.2947570085525513e-001 8.0771082639694214e-001</leafValues></_>
        <_>
          <internalNodes>
            0 -1 16 -3997982 -26020110 -788481 -1 -12517392 -9961481
            -69206017 -1</internalNodes>
          <leafValues>
            -8.2196146249771118e-001 5.4947537183761597e-001</leafValues></_>
        <_>
          <internalNodes>
            0 -1 120 -1 -2097153 2145254879 -1 -1 -17 725550863
            2146434943</internalNodes>
          <leafValues>
            -7.1114379167556763e-001 5.8107519149780273e-001</leafValues></_>
        <_>
          <internalNodes>
            0 -1 102 -134219022 -2097458 -581042722 -67113218 -8388614
            -2098210 -83100998 -630201718</internalNodes>
          <leafValues>
            -6.4922469854354858e-001 5.5598002672195435e-001</leafValues></_>
        <_>
          <internalNodes>
            0 -1 170 -5 -21 -234620416 -882148445 -4195397 -71565394
            -491016192 -81003781</internalNodes>
          <leafValues>
            -5.2698826789855957e-001 6.5793728828430176e-001</leafValues></_>
        <_>
          <internalNodes>
            0 -1 82 2147479551 930820915 -1075839041 867377819
            2141192127 1073733367 -2113537 1002119999</internalNodes>
          <leafValues>
            -8.1858819723129272e-001 4.0518239140510559e-001</leafValues></_></weakClassifiers></_>
    <!-- stage 2 -->
    <_>
      <maxWeakCount>6</maxWeakCount>
      <stageThreshold>-1.7247512340545654e+000</stageThreshold>
      <weakClassifiers>
        <_>
          <internalNodes>
            0 -1 93 -2097153 -2228227 -37377349 -539120981 -36175873
            -35782657 -2118981 -21829</internalNodes>
          <leafValues>
            -7.9474627971649170e-001 7.0268523693084717e-001</leafValues></_>
        <_>
          <internalNodes>
            0 -1 158 -572654132 -706871331 -33 -1025 -563 -33558529
            -4195329 -1</internalNodes>
          <leafValues>
            -7.0648378133773804e-001 5.3881698846817017e-001</leafValues></_>
        <_>
          <internalNodes>
            0 -1 13 -286594062 -16859137 2145320950 -73738 -1443627009
            -876553 -9285 -1</internalNodes>
          <leafValues>
            -6.8532949686050415e-001 5.0833541154861450e-001</leafValues></_>
        <_>
          <internalNodes>
            0 -1 73 -21713 -51405 -1145494597 -19593 -409665 -35783457
            -1082410049 -69</internalNodes>
          <leafValues>
            -5.7288563251495361e-001 5.6280976533889771e-001</leafValues></_>
        <_>
          <internalNodes>
            0 -1 6 -524289 -227018213 1556084448 -535764830 -8389769
            -60031409 -5280670 -192941989</internalNodes>
          <leafValues>
            -5.3281027078628540e-001 5.7084375619888306e-001</leafValues></_>
        <_>
          <internalNodes>
            0 -1 55 -137365184 -67633181 -637701155 -37224449 1145167664
            -269225989 -235012097 -1</internalNodes>
          <leafValues>
            -6.2342226505279541e-001 4.6385020017623901e-001</leafValues></_></weakClassifiers></_>
    <!-- stage 3 -->
    <_>
      <maxWeakCount>7</maxWeakCount>
      <stageThreshold>-2.3650650978088379e+000</stageThreshold>
      <weakClassifiers>
        <_>
          <internalNodes>
            0 -1 103 -1 -134219785 -655378 -8388626 -67108865 -2049
            -34615346 -1060982</internalNodes>
          <leafValues>
            -7.7107703685760498e-001 5.8680403232574463e-001</leafValues></_>
        <_>
          <internalNodes>
            0 -1 192 -801046786 -749339685 -264176641 -76029345
            -34603009 -67110149 -187957249 -67109889</internalNodes>
          <leafValues>
            -7.2775173187255859e-001 4.6655964851379395e-001</leafValues></_>
        <_>
          <internalNodes>
            0 -1 210 -233 -2099337 -574622897 -4195041 -9472239
            1933518679 -139985101 -8650881</internalNodes>
          <leafValues>
            -6.1301052570343018e-001 5.3370583057403564e-001</leafValues></_>
        <_>
          <internalNodes>
            0 -1 5 -522127680 -83886593 -805306385 -1537 -134742031
            -17409 -1 -1053761</internalNodes>
          <leafValues>
            -7.9736351966857910e-001 4.0179383754730225e-001</leafValues></_>
        <_>
          <internalNodes>
            0 -1 24 1879046143 1877994446 1476395005 261050063 -1 -261
            -1025 1341126655</internalNodes>
          <leafValues>
            -6.6489785909652710e-001 3.7663397192955017e-001</leafValues></_>
        <_>
          <internalNodes>
            0 -1 77 -536880449 -2108673 472762506 1606370363 1321979118
            14305643 33898508 1577012303</internalNodes>
          <leafValues>
            -5.6494021415710449e-001 4.3155810236930847e-001</leafValues></_>
        <_>
          <internalNodes>
            0 -1 152 1499463519 -134217729 -842006689 -547356673
            1087755138 -539492513 71618560 1145438047</internalNodes>
          <leafValues>
            -6.1949306726455688e-001 3.9874607324600220e-001</leafValues></_></weakClassifiers></_>
    <!-- stage 4 -->
    <_>
      <maxWeakCount>9</maxWeakCount>
      <stageThreshold>-1.8691840171813965e+000</stageThreshold>
      <weakClassifiers>
        <_>
          <internalNodes>
            0 -1 69 -36306977 -45744161 -547505409 -35673377 -548012033
            -61808643 -2245701 -21569</internalNodes>
          <leafValues>
            -6.6373860836029053e-001 5.4788988828659058e-001</leafValues></_>
        <_>
          <internalNodes>
            0 -1 111 -262 -2097426 -142606337 -2097410 -22 -610281729
            -4196358 -85984574</internalNodes>
          <leafValues>
            -6.1885911226272583e-001 4.8212739825248718e-001</leafValues></_>
        <_>
          <internalNodes>
            0 -1 200 -5361 -537134081 1776278527 -136317185 -1154536958
            772746267 -1440054782 -4194389</internalNodes>
          <leafValues>
            -5.3658741712570190e-001 5.4996806383132935e-001</leafValues></_>
        <_>
          <internalNodes>
            0 -1 7 -257 -4354 -286988114 -35503422 -1 -33290 -268435457
            -12103097</internalNodes>
          <leafValues>
            -4.8550862073898315e-001 5.1933956146240234e-001</leafValues></_>
        <_>
          <internalNodes>
            0 -1 159 1659364095 836763391 -68720641 -134746177
            1121388287 -40961 -134230017 -1</internalNodes>
          <leafValues>
            -4.3987014889717102e-001 5.4008728265762329e-001</leafValues></_>
        <_>
          <internalNodes>
            0 -1 23 -272633873 -1494291857 -1065729 -287315205
            1440723951 1156050939 -807929121 -806363137</internalNodes>
          <leafValues>
            -4.9831315875053406e-001 5.0937944650650024e-001</leafValues></_>
        <_>
          <internalNodes>
            0 -1 189 -134220893 540275219 1364398353 1899229619
            -412093781 -1828978845 1363660818 -235407373</internalNodes>
          <leafValues>
            -5.1577711105346680e-001 4.5820963382720947e-001</leafValues></_>
        <_>
          <internalNodes>
            0 -1 63 799482687 265260543 670528383 -2230273 -69211205
            -10823207 -73729029 -1281</internalNodes>
          <leafValues>
            -5.7707279920578003e-001 4.1832903027534485e-001</leafValues></_>
        <_>
          <internalNodes>
            0 -1 8 -16778497 -67387169 -153362374 -1300651830 -92282813
            -288407433 1996476506 -754978561</internalNodes>
          <leafValues>
            -4.4368466734886169e-001 4.8173725605010986e-001</leafValues></_></weakClassifiers></_>
    <!-- stage 5 -->
    <_>
      <maxWeakCount>10</maxWeakCount>
      <stageThreshold>-1.7276908159255981e+000</stageThreshold>
      <weakClassifiers>
        <_>
          <internalNodes>
            0 -1 114 -2097153 -2049 -35651585 -18 -67108865 -1041
            -526354 -68161906</internalNodes>
          <leafValues>
            -6.1505818367004395e-001 5.5310720205307007e-001</leafValues></_>
        <_>
          <internalNodes>
            0 -1 216 -161 -570425505 -1048737 -136323073 -4195567
            2004197143 -2097391 -1</internalNodes>
          <leafValues>
            -5.1021105051040649e-001 5.1821655035018921e-001</leafValues></_>
        <_>
          <internalNodes>
            0 -1 96 -268588369 -2773569 -1275387205 -62529 -1990349889
            -18957891 -1140868097 -3073</internalNodes>
          <leafValues>
            -6.1905395984649658e-001 4.2357510328292847e-001</leafValues></_>
        <_>
          <internalNodes>
            0 -1 3 -268440849 -889214230 -695 -823197696 -67117061
            1879007934 -4097 -12321</internalNodes>
          <leafValues>
            -4.8434573411941528e-001 5.0458061695098877e-001</leafValues></_>
        <_>
          <internalNodes>
            0 -1 182 -792658722 -732627748 -120422441 -780927617
            -791543809 -579338273 -252182529 -65</internalNodes>
          <leafValues>
            -6.4967459440231323e-001 3.8677841424942017e-001</leafValues></_>
        <_>
          <internalNodes>
            0 -1 56 -168821808 -132105 -41946121 -5 -246350608 -1049602
            -67699201 -3146241</internalNodes>
          <leafValues>
            -5.8173048496246338e-001 3.6786460876464844e-001</leafValues></_>
        <_>
          <internalNodes>
            0 -1 34 -14483469 -295502414 -16397 -545082222 -1132725249
            -1630470163 -67109889 -1572865</internalNodes>
          <leafValues>
            -4.4567522406578064e-001 4.6525114774703979e-001</leafValues></_>
        <_>
          <internalNodes>
            0 -1 143 -286267902 -2100829526 1786965506 -521737490
            -2660569 669511679 -136059134 -6145</internalNodes>
          <leafValues>
            -5.3909003734588623e-001 3.8174137473106384e-001</leafValues></_>
        <_>
          <internalNodes>
            0 -1 207 -536872485 -891824161 -419433615 -772818953
            -951068713 -643826817 1148679505 -772279305</internalNodes>
          <leafValues>
            -4.5953479409217834e-001 4.3108105659484863e-001</leafValues></_>
        <_>
          <internalNodes>
            0 -1 57 729228063 -172835 584921983 2147316701 -1143357569
            -68899331 -1141965825 -2229281</internalNodes>
          <leafValues>
            -5.5882805585861206e-001 3.4754598140716553e-001</leafValues></_></weakClassifiers></_>
    <!-- stage 6 -->
    <_>
      <maxWeakCount>11</maxWeakCount>
      <stageThreshold>-1.9359877109527588e+000</stageThreshold>
      <weakClassifiers>
        <_>
          <internalNodes>
            0 -1 79 -1 -10618113 -142738694 -2102534 -2097221 -538969153
            -2098262 -5462</internalNodes>
          <leafValues>
            -6.2235164642333984e-001 4.7084000706672668e-001</leafValues></_>
        <_>
          <internalNodes>
            0 -1 181 -33554497 -2107939 -1915380289 -2230785 -1073758401
            -1077944963 1061105451 -1077936193</internalNodes>
          <leafValues>
            -5.7842856645584106e-001 4.2734259366989136e-001</leafValues></_>
        <_>
          <internalNodes>
            0 -1 87 2147481395 859567921 -11182313 -538970217 -131649
            -1142960710 -73415233 -1074791265</internalNodes>
          <leafValues>
            -4.7825771570205688e-001 4.7334250807762146e-001</leafValues></_>
        <_>
          <internalNodes>
            0 -1 10 -17301761 -9442569 -1595739905 -524029185 -178784385
            -8394881 -231282945 -184549377</internalNodes>
          <leafValues>
            -4.3388691544532776e-001 5.2783024311065674e-001</leafValues></_>
        <_>
          <internalNodes>
            0 -1 191 -151038731 2147450743 -33 -32769 -2097963 -34122379
            -318767107 -1</internalNodes>
          <leafValues>
            -3.9211142063140869e-001 5.1945215463638306e-001</leafValues></_>
        <_>
          <internalNodes>
            0 -1 147 -6 -50860297 -564396840 -318767105 -85983752
            -661660680 -117643128 -922746885</internalNodes>
          <leafValues>
            -5.2130311727523804e-001 3.9553043246269226e-001</leafValues></_>
        <_>
          <internalNodes>
            0 -1 113 -16777473 -524289 -42516545 -176422915 -4113 -2073
            -67125249 -1596723633</internalNodes>
          <leafValues>
            -4.1374865174293518e-001 4.7357797622680664e-001</leafValues></_>
        <_>
          <internalNodes>
            0 -1 50 -2099249 -270008337 -337117809 -271584881 -3670065
            -162269880 -545259761 1330637647</internalNodes>
          <leafValues>
            -4.1622349619865417e-001 4.6550491452217102e-001</leafValues></_>
        <_>
          <internalNodes>
            0 -1 19 -68157697 -1140875190 -357899166 -120716606
            -1075842049 -340827289 1874089175 -138976153</internalNodes>
          <leafValues>
            -5.4626518487930298e-001 3.5400873422622681e-001</leafValues></_>
        <_>
          <internalNodes>
            0 -1 0 -1360019537 705604266 2147449207 -1416955126
            1222075727 241657881 1467971439 -540540929</internalNodes>
          <leafValues>
            -4.4880467653274536e-001 3.8553586602210999e-001</leafValues></_>
        <_>
          <internalNodes>
            0 -1 138 -529 -6297633 -544264385 -273678589 401298687
            2076867823 1205797119 2146394127</internalNodes>
          <leafValues>
            -6.3346976041793823e-001 2.8249123692512512e-001</leafValues></_></weakClassifiers></_>
    <!-- stage 7 -->
    <_>
      <maxWeakCount>12</maxWeakCount>
      <stageThreshold>-1.7457286119461060e+000</stageThreshold>
      <weakClassifiers>
        <_>
          <internalNodes>
            0 -1 68 -572653569 -580517923 -150087205 -2250085 -37355585
            -37421601 -2228293 -67130693</internalNodes>
          <leafValues>
            -6.2005180120468140e-001 4.0944349765777588e-001</leafValues></_>
        <_>
          <internalNodes>
            0 -1 186 -1 -2100257 -2104 -538968065 -16777729 -826277889
            -522719232 -858783777</internalNodes>
          <leafValues>
            -4.7832027077674866e-001 4.2760252952575684e-001</leafValues></_>
        <_>
          <internalNodes>
            0 -1 105 -2621441 939487635 -45752353 322426679 -536879137
            -2229423 -3282465 868217775</internalNodes>
          <leafValues>
            -6.5927362442016602e-001 2.9300206899642944e-001</leafValues></_>
        <_>
          <internalNodes>
            0 -1 43 -288362497 -385942289 -418386177 -285219073
            -996156449 -270561793 -71303169 -3073</internalNodes>
          <leafValues>
            -4.7325503826141357e-001 3.9964535832405090e-001</leafValues></_>
        <_>
          <internalNodes>
            0 -1 76 -131073 -541065473 2147483647 -806355073 -15205444
            1431436764 -8388737 1330642783</internalNodes>
          <leafValues>
            -3.9500018954277039e-001 4.7242617607116699e-001</leafValues></_>
        <_>
          <internalNodes>
            0 -1 104 -2097422 -224291 -1002115516 -185610817 -76152833
            -75423557 -431689881 -280100897</internalNodes>
          <leafValues>
            -4.8482400178909302e-001 3.6323961615562439e-001</leafValues></_>
        <_>
          <internalNodes>
            0 -1 149 271585776 -34206721 -1644300803 -182337 -1146045700
            -1079198993 -1080574465 -1078262598</internalNodes>
          <leafValues>
            -3.8521963357925415e-001 4.5988118648529053e-001</leafValues></_>
        <_>
          <internalNodes>
            0 -1 22 -538968321 -210770177 -495783681 1893462783
            -547887785 -276824197 -520628481 -184549377</internalNodes>
          <leafValues>
            -3.4621441364288330e-001 5.0058823823928833e-001</leafValues></_>
        <_>
          <internalNodes>
            0 -1 178 -541109156 486494687 1043062494 -1207968913
            -775958268 1353938705 -201336356 -33554433</internalNodes>
          <leafValues>
            -5.5071705579757690e-001 3.2358253002166748e-001</leafValues></_>
        <_>
          <internalNodes>
            0 -1 14 -403241025 -53265 -1318453478 -1343615998 -368416201
            -339771394 -71762081 -37037</internalNodes>
          <leafValues>
            -4.6562272310256958e-001 3.6302173137664795e-001</leafValues></_>
        <_>
          <internalNodes>
            0 -1 193 -364446528 1140874448 -206391813 791795695
            1506533374 -134241882 -89915393 -129</internalNodes>
          <leafValues>
            -6.8093627691268921e-001 2.5242909789085388e-001</leafValues></_>
        <_>
          <internalNodes>
            0 -1 174 -34866670 -922488576 -675556080 -240913789
            -1681919566 -1549402581 -215221581 -273943557</internalNodes>
          <leafValues>
            -4.2124423384666443e-001 3.7943965196609497e-001</leafValues></_></weakClassifiers></_>
    <!-- stage 8 -->
    <_>
      <maxWeakCount>12</maxWeakCount>
      <stageThreshold>-1.8572090864181519e+000</stageThreshold>
      <weakClassifiers>
        <_>
          <internalNodes>
            0 -1 167 -134217729 -2098177 -842794625 -2097289 -2097153
            -72352803 -51380225 -134789887</internalNodes>
          <leafValues>
            -6.2506061792373657e-001 3.4344068169593811e-001</leafValues></_>
        <_>
          <internalNodes>
            0 -1 40 -12124210 -1115137 -135342626 -135681 -146735108
            -541765 -135996417 -1</internalNodes>
          <leafValues>
            -6.0508793592453003e-001 3.2814565300941467e-001</leafValues></_>
        <_>
          <internalNodes>
            0 -1 35 -78249985 -197089600 -579350049 -1073705278
            -552222721 -111804577 2135419775 -582615217</internalNodes>
          <leafValues>
            -5.4680532217025757e-001 3.3004599809646606e-001</leafValues></_>
        <_>
          <internalNodes>
            0 -1 136 2147188603 -67897613 2034464639 -134217729
            2147448579 -67110402 34559567 2139094911</internalNodes>
          <leafValues>
            -6.2505978345870972e-001 2.6294872164726257e-001</leafValues></_>
        <_>
          <internalNodes>
            0 -1 199 -77 -170132553 -34097391 -35653633 -134217786
            -973078785 -779094571 -671090697</internalNodes>
          <leafValues>
            -3.7454879283905029e-001 4.5486289262771606e-001</leafValues></_>
        <_>
          <internalNodes>
            0 -1 106 -33554987 1422990685 -545259521 270139357
            -105644555 -587468612 -52167986 -1197736738</internalNodes>
          <leafValues>
            -4.1088652610778809e-001 4.0006580948829651e-001</leafValues></_>
        <_>
          <internalNodes>
            0 -1 144 -286265854 2160928 -995652064 1086828422 -212605180
            1288434346 -176708829 -704643073</internalNodes>
          <leafValues>
            -4.8521921038627625e-001 3.2920214533805847e-001</leafValues></_>
        <_>
          <internalNodes>
            0 -1 124 2097168 1396576592 531119519 469379632 682672124
            -1079887105 263205562 188219392</internalNodes>
          <leafValues>
            -6.5320008993148804e-001 2.4623927474021912e-001</leafValues></_>
        <_>
          <internalNodes>
            0 -1 2 -277872645 -358418514 -671125126 -1382998 670560255
            -2107456073 1943535614 -8193</internalNodes>
          <leafValues>
            -4.0050721168518066e-001 4.0736156702041626e-001</leafValues></_>
        <_>
          <internalNodes>
            0 -1 205 -287309841 -355467266 787740834 170845134
            -939528709 -891628625 -1065099264 -257164653</internalNodes>
          <leafValues>
            -4.5076343417167664e-001 3.5220828652381897e-001</leafValues></_>
        <_>
          <internalNodes>
            0 -1 48 -106241437 -1916190 256796917 -674086800 318976563
            -11402704 2138462035 -75546525</internalNodes>
          <leafValues>
            -4.2793330550193787e-001 3.6305809020996094e-001</leafValues></_>
        <_>
          <internalNodes>
            0 -1 171 403734452 2077020125 226934399 1068875385 958581432
            -1162207755 243973631 -1415634945</internalNodes>
          <leafValues>
            -4.0470737218856812e-001 3.8157939910888672e-001</leafValues></_></weakClassifiers></_>
    <!-- stage 9 -->
    <_>
      <maxWeakCount>13</maxWeakCount>
      <stageThreshold>-1.8020677566528320e+000</stageThreshold>
      <weakClassifiers>
        <_>
          <internalNodes>
            0 -1 121 -2049 -3073 -14682113 -570427409 -8389633 -3090 -49
            -286331186</internalNodes>
          <leafValues>
            -5.0729048252105713e-001 4.0468290448188782e-001</leafValues></_>
        <_>
          <internalNodes>
            0 -1 203 -225 -8389121 -9249 -201328305 -239 -77075081 -973
            -8388673</internalNodes>
          <leafValues>
            -4.6246314048767090e-001 4.1189545392990112e-001</leafValues></_>
        <_>
          <internalNodes>
            0 -1 142 -67112961 -8257 -1 -1 1627276543 -16812545
            -33554433 -257</internalNodes>
          <leafValues>
            -3.6218217015266418e-001 5.5435413122177124e-001</leafValues></_>
        <_>
          <internalNodes>
            0 -1 71 -716835340 -717163024 -1680633349 -708455963
            1011219453 -76025857 -1412716817 -2049</internalNodes>
          <leafValues>
            -6.2123072147369385e-001 3.0209976434707642e-001</leafValues></_>
        <_>
          <internalNodes>
            0 -1 172 -545526017 -81795941 186527514 33750568 -15728709
            973340209 259777467 724303803</internalNodes>
          <leafValues>
            -4.7813621163368225e-001 3.5463756322860718e-001</leafValues></_>
        <_>
          <internalNodes>
            0 -1 25 -269746177 -286331137 -271880465 -286347609 -6291457
            1323814655 -1054497 -806357537</internalNodes>
          <leafValues>
            -4.4153961539268494e-001 3.5139641165733337e-001</leafValues></_>
        <_>
          <internalNodes>
            0 -1 116 -873467989 17027843 -103295725 -706740273
            -275781169 1173614031 -8389637 -134217857</internalNodes>
          <leafValues>
            -4.0602403879165649e-001 3.9668896794319153e-001</leafValues></_>
        <_>
          <internalNodes>
            0 -1 32 -17303809 -12553 -1601117442 -492047617 1122484806
            -142647353 -132717857 -71303425</internalNodes>
          <leafValues>
            -3.5358786582946777e-001 4.3394538760185242e-001</leafValues></_>
        <_>
          <internalNodes>
            0 -1 220 -9438462 -2111243841 -1215701229 -1346384897
            -63047745 -20202909 -4224837 -1089</internalNodes>
          <leafValues>
            -4.0205809473991394e-001 3.8012540340423584e-001</leafValues></_>
        <_>
          <internalNodes>
            0 -1 110 1283493588 -663986465 -35909635 -578855139 92310160
            -45054795 -811857125 -1095777</internalNodes>
          <leafValues>
            -3.6374175548553467e-001 4.1418826580047607e-001</leafValues></_>
        <_>
          <internalNodes>
            0 -1 168 -144507649 -4134846 -843452545 -571671914
            -532676365 -1151335936 844457975 -10001593</internalNodes>
          <leafValues>
            -3.9117354154586792e-001 3.5379356145858765e-001</leafValues></_>
        <_>
          <internalNodes>
            0 -1 53 -356322064 -529734187 107888917 -536914097
            -202178669 -2101013 1062436723 -641</internalNodes>
          <leafValues>
            -5.9632891416549683e-001 2.2742189466953278e-001</leafValues></_>
        <_>
          <internalNodes>
            0 -1 208 -241 1501556535 -529573 1352627071 -100697008
            1065353086 -1310980 -2359329</internalNodes>
          <leafValues>
            -3.6760136485099792e-001 3.8210546970367432e-001</leafValues></_></weakClassifiers></_>
    <!-- stage 10 -->
    <_>
      <maxWeakCount>14</maxWeakCount>
      <stageThreshold>-2.1367061138153076e+000</stageThreshold>
      <weakClassifiers>
        <_>
          <internalNodes>
            0 -1 37 -581894691 -135200801 -44978177 -676161 -402587649
            -8324104 -539447297 -184449</internalNodes>
          <leafValues>
            -5.6229507923126221e-001 3.4224730730056763e-001</leafValues></_>
        <_>
          <internalNodes>
            0 -1 89 830468915 322122547 -167783623 -136318509 -201591362
            -1075916865 -104299345 -5251413</internalNodes>
          <leafValues>
            -5.2756625413894653e-001 3.0234229564666748e-001</leafValues></_>
        <_>
          <internalNodes>
            0 -1 26 -134744065 -4196353 -487931904 -117506097 -3145729
            -620356721 -151063056 -218365953</internalNodes>
          <leafValues>
            -4.5758065581321716e-001 3.5513865947723389e-001</leafValues></_>
        <_>
          <internalNodes>
            0 -1 59 -150999297 -84415761 -487784705 -220005666
            -161758401 -649114025 -605556801 -260571425</internalNodes>
          <leafValues>
            -3.7975400686264038e-001 4.0192890167236328e-001</leafValues></_>
        <_>
          <internalNodes>
            0 -1 154 -403181769 -21081 -16777409 -101 -16777281
            -537940187 -75497537 -294656509</internalNodes>
          <leafValues>
            -2.9170548915863037e-001 5.1833087205886841e-001</leafValues></_>
        <_>
          <internalNodes>
            0 -1 148 -8388613 -4097 -1073750768 -5 -805325829
            -1396854801 -661663096 -2000946533</internalNodes>
          <leafValues>
            -3.6925062537193298e-001 3.9302092790603638e-001</leafValues></_>
        <_>
          <internalNodes>
            0 -1 12 -386930166 -1058043782 -409731657 -84426752
            1091530623 549435911 -168821761 -2109225</internalNodes>
          <leafValues>
            -4.1660624742507935e-001 3.4881824254989624e-001</leafValues></_>
        <_>
          <internalNodes>
            0 -1 218 -788540396 274535452 -597837507 408501211 -52758372
            -52455236 -388435832 -2004157505</internalNodes>
          <leafValues>
            -4.1642984747886658e-001 3.5348629951477051e-001</leafValues></_>
        <_>
          <internalNodes>
            0 -1 20 -67112210 -118490165 -336630003 -1890582673
            -242484281 -242486386 1294946123 1196425035</internalNodes>
          <leafValues>
            -4.8997610807418823e-001 2.8017374873161316e-001</leafValues></_>
        <_>
          <internalNodes>
            0 -1 112 -1438717969 -2113793 -552150049 -459073 -16783409
            -533537 -1076909073 -1431639474</internalNodes>
          <leafValues>
            -5.1947045326232910e-001 2.7466455101966858e-001</leafValues></_>
        <_>
          <internalNodes>
            0 -1 225 -537415889 -1560281169 2012863517 -486549605
            2004820995 1260781407 -617634808 -76550257</internalNodes>
          <leafValues>
            -3.7735936045646667e-001 3.4824180603027344e-001</leafValues></_>
        <_>
          <internalNodes>
            0 -1 161 -19930494 -522344726 1651032576 -1058668945
            1937121280 1467049043 -210538238 -14157889</internalNodes>
          <leafValues>
            -4.8103845119476318e-001 2.8309333324432373e-001</leafValues></_>
        <_>
          <internalNodes>
            0 -1 166 5252112 -612616092 -1798823939 2113740157
            -1074742532 -1093354984 505162686 1042811016</internalNodes>
          <leafValues>
            -6.2647807598114014e-001 2.1460400521755219e-001</leafValues></_>
        <_>
          <internalNodes>
            0 -1 45 -425525510 -60642846 1580088439 -1040160 100842163
            -14644368 974476799 -3473037</internalNodes>
          <leafValues>
            -3.5499519109725952e-001 3.7550339102745056e-001</leafValues></_></weakClassifiers></_>
    <!-- stage 11 -->
    <_>
      <maxWeakCount>15</maxWeakCount>
      <stageThreshold>-1.7902374267578125e+000</stageThreshold>
      <weakClassifiers>
        <_>
          <internalNodes>
            0 -1 101 -45613057 -581308705 -719978529 -573182241
            -44171301 -27918337 -145884485 -138582</internalNodes>
          <leafValues>
            -5.0313293933868408e-001 3.4809392690658569e-001</leafValues></_>
        <_>
          <internalNodes>
            0 -1 155 -656605217 -681727001 -72121353 -1218764189
            -799997956 -102892741 1886519023 -67109953</internalNodes>
          <leafValues>
            -5.0218307971954346e-001 3.3349835872650146e-001</leafValues></_>
        <_>
          <internalNodes>
            0 -1 47 -1033709826 -67128389 -491782305 -4197537 -227086508
            -34621303 -1049889 -1089</internalNodes>
          <leafValues>
            -5.3884327411651611e-001 3.0986413359642029e-001</leafValues></_>
        <_>
          <internalNodes>
            0 -1 198 -1133 -642777822 -708840975 -138153039 -173019221
            -1146099837 -170400623 -536879625</internalNodes>
          <leafValues>
            -3.2461041212081909e-001 4.7208914160728455e-001</leafValues></_>
        <_>
          <internalNodes>
            0 -1 160 -84941105 -170972433 -636551169 1499324927
            1682113551 1903383101 -201326593 -140513793</internalNodes>
          <leafValues>
            -4.1853314638137817e-001 3.6843931674957275e-001</leafValues></_>
        <_>
          <internalNodes>
            0 -1 60 -1427447821 -85786625 -302514307 -33619977
            -1347420161 -67117062 -1075838979 -1</internalNodes>
          <leafValues>
            -3.5492658615112305e-001 3.9554232358932495e-001</leafValues></_>
        <_>
          <internalNodes>
            0 -1 119 -133642764 -259916 -568064652 -35848140 -1937767228
            -390970068 1545665020 -41473</internalNodes>
          <leafValues>
            -4.1092059016227722e-001 3.7683016061782837e-001</leafValues></_>
        <_>
          <internalNodes>
            0 -1 212 -33563171 -2097665 1577051869 -541065217
            -1107313272 -33570865 -1432638968 -1162085381</internalNodes>
          <leafValues>
            -3.2784712314605713e-001 4.0632659196853638e-001</leafValues></_>
        <_>
          <internalNodes>
            0 -1 58 -261101330 -212865396 -521221410 -218125622
            1078215746 -120176052 1413498599 -67150225</internalNodes>
          <leafValues>
            -4.3944925069808960e-001 3.0851510167121887e-001</leafValues></_>
        <_>
          <internalNodes>
            0 -1 140 -420485630 -2133136654 -357765296 15329982
            -201900254 -1702889629 -93345950 -201326713</internalNodes>
          <leafValues>
            -4.8296618461608887e-001 2.6256722211837769e-001</leafValues></_>
        <_>
          <internalNodes>
            0 -1 131 -50274512 -659544956 2104466879 -33710963
            -1229873483 -1188032260 -12601089 -1423187521</internalNodes>
          <leafValues>
            -3.2556164264678955e-001 3.7746104598045349e-001</leafValues></_>
        <_>
          <internalNodes>
            0 -1 180 -50342537 -1367389569 -892617777 -1363185745
            -155189455 -2097329 -268701873 -273678465</internalNodes>
          <leafValues>
            -3.1377661228179932e-001 4.0678697824478149e-001</leafValues></_>
        <_>
          <internalNodes>
            0 -1 61 2142238431 732954547 1979678719 789543807 1073741823
            -270534664 1073575935 2146400127</internalNodes>
          <leafValues>
            -4.6835350990295410e-001 2.8725433349609375e-001</leafValues></_>
        <_>
          <internalNodes>
            0 -1 88 -2009886821 121210679 2136215313 185015099
            -1998517334 -1969287953 -1357235829 196611562</internalNodes>
          <leafValues>
            -4.1893276572227478e-001 2.9080498218536377e-001</leafValues></_>
        <_>
          <internalNodes>
            0 -1 18 -1281 -9441317 -687341626 -490542586 -35390609
            2117533463 1527709447 -144181673</internalNodes>
          <leafValues>
            -4.4238427281379700e-001 2.8588229417800903e-001</leafValues></_></weakClassifiers></_>
    <!-- stage 12 -->
    <_>
      <maxWeakCount>16</maxWeakCount>
      <stageThreshold>-2.0702679157257080e+000</stageThreshold>
      <weakClassifiers>
        <_>
          <internalNodes>
            0 -1 83 -236981281 -707530241 -586875444 -41060470
            -1280049665 -101532745 -557200178 -5517938</internalNodes>
          <leafValues>
            -6.9273585081100464e-001 1.8621562421321869e-001</leafValues></_>
        <_>
          <internalNodes>
            0 -1 163 -1 -537166433 -13142640 -773858309 -69206038
            -17044822 -67110262 -1158938693</internalNodes>
          <leafValues>
            -3.8412114977836609e-001 4.1891711950302124e-001</leafValues></_>
        <_>
          <internalNodes>
            0 -1 85 286388513 -1811957761 -210778831 -525879 -1080365381
            -68224883 -1092894017 -1057809</internalNodes>
          <leafValues>
            -4.9024733901023865e-001 2.9343184828758240e-001</leafValues></_>
        <_>
          <internalNodes>
            0 -1 51 -5570561 -290789889 -1645283329 -290712065 -7670789
            -18093121 -6029349 -805310977</internalNodes>
          <leafValues>
            -3.7291795015335083e-001 3.7563514709472656e-001</leafValues></_>
        <_>
          <internalNodes>
            0 -1 201 183492575 -137103917 -1296042657 -134221345
            -1161916918 -1275068977 705341962 -1431371857</internalNodes>
          <leafValues>
            -4.3360090255737305e-001 3.2453307509422302e-001</leafValues></_>
        <_>
          <internalNodes>
            0 -1 197 -201329725 1097333505 -782929136 -245246158
            -1140851029 -830752373 -218630222 -138414085</internalNodes>
          <leafValues>
            -3.7552067637443542e-001 3.6961838603019714e-001</leafValues></_>
        <_>
          <internalNodes>
            0 -1 109 -34078721 -4276353 -1082146820 -49580541 -302579969
            -154137425 -271102993 1594035979</internalNodes>
          <leafValues>
            -3.3210963010787964e-001 4.1598659753799438e-001</leafValues></_>
        <_>
          <internalNodes>
            0 -1 145 -318772310 -2133938560 -957480448 -1058755029
            -1049553055 1107480529 1930945795 -587727877</internalNodes>
          <leafValues>
            -4.3536737561225891e-001 2.9971113801002502e-001</leafValues></_>
        <_>
          <internalNodes>
            0 -1 133 1564513108 -604194700 -1082834945 -682882884
            -1095451656 -17818979 464563643 -1693974400</internalNodes>
          <leafValues>
            -3.7707525491714478e-001 3.5041534900665283e-001</leafValues></_>
        <_>
          <internalNodes>
            0 -1 4 -285217025 3047470 -67514254 13484126 2145384319
            33544435 -640682113 -251801857</internalNodes>
          <leafValues>
            -3.8337045907974243e-001 3.3896186947822571e-001</leafValues></_>
        <_>
          <internalNodes>
            0 -1 54 -89985296 -10293128 -1119072431 -42418112 167773344
            -5949984 235288023 2130789457</internalNodes>
          <leafValues>
            -4.7877648472785950e-001 2.8157636523246765e-001</leafValues></_>
        <_>
          <internalNodes>
            0 -1 150 37685299 -19013889 1589099871 -8442371 -348439951
            -33554991 -1077882887 -2167554</internalNodes>
          <leafValues>
            -3.3280047774314880e-001 3.7909173965454102e-001</leafValues></_>
        <_>
          <internalNodes>
            0 -1 213 -669217576 -572622123 1066590079 -706049197
            -1078285317 -7414214 -3478529 -1155339349</internalNodes>
          <leafValues>
            -3.8828864693641663e-001 3.2894629240036011e-001</leafValues></_>
        <_>
          <internalNodes>
            0 -1 153 -276830433 -6296293 2146959101 -2113869 -26897
            -3149937 -16777797 -286268413</internalNodes>
          <leafValues>
            -2.4310009181499481e-001 4.9263918399810791e-001</leafValues></_>
        <_>
          <internalNodes>
            0 -1 230 -5246157 1147256495 -1069817453 1105851554
            1597977378 729773111 1043843635 -671089669</internalNodes>
          <leafValues>
            -3.4737184643745422e-001 3.5414993762969971e-001</leafValues></_>
        <_>
          <internalNodes>
            0 -1 38 -798949568 -1060999612 -86780069 1088421067
            -210440384 1355079557 -101806081 -603989041</internalNodes>
          <leafValues>
            -6.1690604686737061e-001 1.9889926910400391e-001</leafValues></_></weakClassifiers></_>
    <!-- stage 13 -->
    <_>
      <maxWeakCount>18</maxWeakCount>
      <stageThreshold>-2.0621767044067383e+000</stageThreshold>
      <weakClassifiers>
        <_>
          <internalNodes>
            0 -1 204 -262145 -8265 2147483647 -1 -516 -33558563
            -1090519908 -1</internalNodes>
          <leafValues>
            -3.8866764307022095e-001 4.0792807936668396e-001</leafValues></_>
        <_>
          <internalNodes>
            0 -1 194 1077986510 -537790817 -1064252725 -235809809
            -137625873 -71319573 -7607553 -2360673</internalNodes>
          <leafValues>
            -5.8441597223281860e-001 2.6128461956977844e-001</leafValues></_>
        <_>
          <internalNodes>
            0 -1 78 -748431617 -536910881 453188143 1600113774
            1542622459 1275023055 1258835019 1600080975</internalNodes>
          <leafValues>
            -4.0490481257438660e-001 3.5851138830184937e-001</leafValues></_>
        <_>
          <internalNodes>
            0 -1 107 -579340811 -790809133 2132540795 274578167
            -90047286 -1998944120 -1088443441 -1997801765</internalNodes>
          <leafValues>
            -4.1198450326919556e-001 3.2022985816001892e-001</leafValues></_>
        <_>
          <internalNodes>
            0 -1 30 -69206018 -593170 -1528034050 -35493138 -341847553
            -83368972 1521203711 -146475017</internalNodes>
          <leafValues>
            -4.9547734856605530e-001 2.6597091555595398e-001</leafValues></_>
        <_>
          <internalNodes>
            0 -1 128 -806361461 -2133924700 -1029745632 -990925013
            1350276279 1083303835 -505948413 -570425409</internalNodes>
          <leafValues>
            -3.3059042692184448e-001 3.8799798488616943e-001</leafValues></_>
        <_>
          <internalNodes>
            0 -1 33 -352325633 -285212993 -134742083 -67775754
            -1476919313 -1879572489 1409283807 -13057</internalNodes>
          <leafValues>
            -2.9262015223503113e-001 4.4740727543830872e-001</leafValues></_>
        <_>
          <internalNodes>
            0 -1 39 -292212929 -2807751 -1345048577 -44726755 783822655
            -544991184 261177183 -2605126</internalNodes>
          <leafValues>
            -4.6618634462356567e-001 2.7287408709526062e-001</leafValues></_>
        <_>
          <internalNodes>
            0 -1 190 -33564709 -1034158255 -1588080239 -235146761
            -77866614 -910591555 2002178339 -235407629</internalNodes>
          <leafValues>
            -3.7241959571838379e-001 3.3346080780029297e-001</leafValues></_>
        <_>
          <internalNodes>
            0 -1 196 -6237808 -577750768 -1095991344 292033560
            -1438998344 -1962237952 -1358786870 -1349783617</internalNodes>
          <leafValues>
            -3.6647769808769226e-001 3.2606944441795349e-001</leafValues></_>
        <_>
          <internalNodes>
            0 -1 126 -260047889 -201346065 -1476985985 -34603793
            -100664337 -71304756 -17828881 -420549052</internalNodes>
          <leafValues>
            -3.9150926470756531e-001 2.9913380742073059e-001</leafValues></_>
        <_>
          <internalNodes>
            0 -1 21 -218104065 -25460097 -499977992 -1834816806
            1147662933 -294423538 -262234401 -184551681</internalNodes>
          <leafValues>
            -3.8613846898078918e-001 3.2313340902328491e-001</leafValues></_>
        <_>
          <internalNodes>
            0 -1 123 -1670113196 -252936 -1210032291 -550162853
            -1347895880 -4710732 -1082605637 -1884815207</internalNodes>
          <leafValues>
            -3.2287093997001648e-001 3.8877859711647034e-001</leafValues></_>
        <_>
          <internalNodes>
            0 -1 217 -402615980 1506542772 -1683194371 -576434596
            -1439236120 -1090667191 -1347814401 -1416977957</internalNodes>
          <leafValues>
            -3.0826508998870850e-001 3.9254826307296753e-001</leafValues></_>
        <_>
          <internalNodes>
            0 -1 97 -319816105 -2228235 1145096193 -186264449 -10617017
            -270532777 -182076557 -4194305</internalNodes>
          <leafValues>
            -3.0799418687820435e-001 3.7853795289993286e-001</leafValues></_>
        <_>
          <internalNodes>
            0 -1 209 -1157743337 -72090193 183234287 -419562593
            -185634512 -1083724713 -89129114 -268435654</internalNodes>
          <leafValues>
            -4.0329310297966003e-001 2.9841917753219604e-001</leafValues></_>
        <_>
          <internalNodes>
            0 -1 175 -657465344 557056 -850658048 290453465 -1733952896
            134986762 -883827544 143391707</internalNodes>
          <leafValues>
            -5.5034542083740234e-001 2.3159214854240417e-001</leafValues></_>
        <_>
          <internalNodes>
            0 -1 28 -357896458 -9818902 -884857760 -572129184 1984422067
            -638185289 857166755 -8437129</internalNodes>
          <leafValues>
            -3.9933586120605469e-001 3.0773863196372986e-001</leafValues></_></weakClassifiers></_>
    <!-- stage 14 -->
    <_>
      <maxWeakCount>19</maxWeakCount>
      <stageThreshold>-1.8467762470245361e+000</stageThreshold>
      <weakClassifiers>
        <_>
          <internalNodes>
            0 -1 92 -44695553 -136851505 -37355811 -547492129 -35782689
            -318386465 -146279750 -7446</internalNodes>
          <leafValues>
            -4.6724966168403625e-001 3.0370238423347473e-001</leafValues></_>
        <_>
          <internalNodes>
            0 -1 227 -134217737 -2109445 -107219459 -144974465
            -268441644 -605030064 -612110256 -623184304</internalNodes>
          <leafValues>
            -4.1307350993156433e-001 3.4855890274047852e-001</leafValues></_>
        <_>
          <internalNodes>
            0 -1 42 -84942081 -70792485 -1036984105 -253566209
            -260844849 -270053121 -168637185 -184555777</internalNodes>
          <leafValues>
            -3.3205780386924744e-001 3.9633306860923767e-001</leafValues></_>
        <_>
          <internalNodes>
            0 -1 86 -171968553 295171333 -39059979 494910907 -37749763
            -2002927948 -1108435030 -1997542401</internalNodes>
          <leafValues>
            -3.4019038081169128e-001 3.9031872153282166e-001</leafValues></_>
        <_>
          <internalNodes>
            0 -1 211 -570446065 -538978819 -975844121 -305801763
            -2153169 253441469 -1883525588 -17</internalNodes>
          <leafValues>
            -3.6246067285537720e-001 3.5760748386383057e-001</leafValues></_>
        <_>
          <internalNodes>
            0 -1 162 -34079265 -103424003 -263203 -1342439745 -13631508
            -1246128715 -1431319303 229607567</internalNodes>
          <leafValues>
            -3.3371406793594360e-001 3.9288130402565002e-001</leafValues></_>
        <_>
          <internalNodes>
            0 -1 146 -9437626 -720391409 -832137074 1198501839
            -248398075 1886468389 -42614961 -143130641</internalNodes>
          <leafValues>
            -3.7927350401878357e-001 3.2382613420486450e-001</leafValues></_>
        <_>
          <internalNodes>
            0 -1 75 -32571394 -355932954 -88678411 -859243304 -849413448
            -286328710 -2008755980 -863047472</internalNodes>
          <leafValues>
            -4.8332351446151733e-001 2.5772207975387573e-001</leafValues></_>
        <_>
          <internalNodes>
            0 -1 64 -1 -8127855 2143845192 -6075446 -620579886
            1411897414 1157648384 1598510159</internalNodes>
          <leafValues>
            -4.2414724826812744e-001 2.8261369466781616e-001</leafValues></_>
        <_>
          <internalNodes>
            0 -1 62 -1359272129 1862195931 -1189876425 -1403056345
            -923053275 -558124101 -1686418681 -268498353</internalNodes>
          <leafValues>
            -4.0036466717720032e-001 2.9841098189353943e-001</leafValues></_>
        <_>
          <internalNodes>
            0 -1 94 -1185676272 -2621096 -573867555 2036167581
            -1350556456 -554034708 -149094993 991433752</internalNodes>
          <leafValues>
            -5.2222359180450439e-001 2.2677105665206909e-001</leafValues></_>
        <_>
          <internalNodes>
            0 -1 151 -33591019 -577810561 -112034849 -37784225
            -1144261755 -336671749 -37162683 -70302457</internalNodes>
          <leafValues>
            -4.5373225212097168e-001 2.4538923799991608e-001</leafValues></_>
        <_>
          <internalNodes>
            0 -1 215 -33665 -44583105 -1292405257 1110933375 -4719244
            -281026713 -104858369 -80019717</internalNodes>
          <leafValues>
            -2.9261752963066101e-001 3.8794541358947754e-001</leafValues></_>
        <_>
          <internalNodes>
            0 -1 135 -787753964 285757509 -815407747 427676191
            -1922303047 -1455817992 -1730287224 145750459</internalNodes>
          <leafValues>
            -3.4961500763893127e-001 3.2228246331214905e-001</leafValues></_>
        <_>
          <internalNodes>
            0 -1 221 -84411820 2052553778 1254159610 1883390554
            -537669616 -295996591 -129237312 -94700334</internalNodes>
          <leafValues>
            -3.8735723495483398e-001 3.0472701787948608e-001</leafValues></_>
        <_>
          <internalNodes>
            0 -1 224 -284170104 144343384 94232077 416151259 -288896888
            -2010526502 985637048 -1962936134</internalNodes>
          <leafValues>
            -3.9074963331222534e-001 2.8913521766662598e-001</leafValues></_>
        <_>
          <internalNodes>
            0 -1 179 517691703 -1426146881 1591530655 -1368634129
            -71428350 -1087361 -275091709 -1359000785</internalNodes>
          <leafValues>
            -3.9481452107429504e-001 3.0970239639282227e-001</leafValues></_>
        <_>
          <internalNodes>
            0 -1 127 -554440769 494395188 -1368068300 -2131448443
            1279319157 1844928477 -869994992 -671089785</internalNodes>
          <leafValues>
            -3.2226780056953430e-001 3.6258143186569214e-001</leafValues></_>
        <_>
          <internalNodes>
            0 -1 1 -269488149 7009258 1331376183 -391980729 -978852997
            570948323 1983248359 -706741537</internalNodes>
          <leafValues>
            -4.0435877442359924e-001 2.9054212570190430e-001</leafValues></_></weakClassifiers></_>
    <!-- stage 15 -->
    <_>
      <maxWeakCount>19</maxWeakCount>
      <stageThreshold>-1.7366855144500732e+000</stageThreshold>
      <weakClassifiers>
        <_>
          <internalNodes>
            0 -1 70 -653208099 -587148080 -716063301 -36323943
            -725549571 -804988716 -170548293 -1344421953</internalNodes>
          <leafValues>
            -5.3753626346588135e-001 2.1976573765277863e-001</leafValues></_>
        <_>
          <internalNodes>
            0 -1 187 -1029 -338436209 -485527006 -342097958 -805307397
            -290729745 -520899918 -202114061</internalNodes>
          <leafValues>
            -3.8601899147033691e-001 3.4575000405311584e-001</leafValues></_>
        <_>
          <internalNodes>
            0 -1 118 -67108866 -187630602 -337133628 -661777 19629227
            9487046 -273683745 1442316207</internalNodes>
          <leafValues>
            -4.0233433246612549e-001 3.1792539358139038e-001</leafValues></_>
        <_>
          <internalNodes>
            0 -1 108 -754716400 -115179392 1431695633 -715792139
            -1432387407 -1901354056 1444270353 -980430639</internalNodes>
          <leafValues>
            -4.0065348148345947e-001 3.0813500285148621e-001</leafValues></_>
        <_>
          <internalNodes>
            0 -1 202 -8389123 -67841 -268503553 -33637025 -536887339
            -33795 -417987 -67371009</internalNodes>
          <leafValues>
            -3.1126803159713745e-001 3.8564953207969666e-001</leafValues></_>
        <_>
          <internalNodes>
            0 -1 183 1081098487 -9330497 5466775 935496457 -211872769
            -7487351 -201327665 -14685457</internalNodes>
          <leafValues>
            -4.5998793840408325e-001 2.5784823298454285e-001</leafValues></_>
        <_>
          <internalNodes>
            0 -1 11 -1476415701 -1931564498 -686294267 -304118266
            1859515719 144679731 -874322449 -13377</internalNodes>
          <leafValues>
            -3.6930668354034424e-001 3.1101340055465698e-001</leafValues></_>
        <_>
          <internalNodes>
            0 -1 164 -7390 50508546 -201459919 892196307 -391149172
            -1576350802 -815412821 -1886388225</internalNodes>
          <leafValues>
            -3.1902626156806946e-001 3.7458497285842896e-001</leafValues></_>
        <_>
          <internalNodes>
            0 -1 134 67108952 -536995724 495140733 1475941917 864598776
            -68474440 254261946 733609992</internalNodes>
          <leafValues>
            -4.5491862297058105e-001 2.5337865948677063e-001</leafValues></_>
        <_>
          <internalNodes>
            0 -1 41 -19932606 -1060708884 -1949337785 -1544563987
            -436248252 1142157655 -543555761 1800130511</internalNodes>
          <leafValues>
            -5.7251328229904175e-001 1.9247727096080780e-001</leafValues></_>
        <_>
          <internalNodes>
            0 -1 156 -32505857 -640168451 905812591 1843361512 591845367
            -614243341 1430616051 -8947998</internalNodes>
          <leafValues>
            -3.7389260530471802e-001 2.9974702000617981e-001</leafValues></_>
        <_>
          <internalNodes>
            0 -1 67 267102715 -835784003 -694682665 -319097096
            -1348475649 -856377159 -1747487749 -1049379</internalNodes>
          <leafValues>
            -3.4056141972541809e-001 3.1520882248878479e-001</leafValues></_>
        <_>
          <internalNodes>
            0 -1 72 -1434390288 -134835754 2071984089 -668428
            -1691305288 -1079004223 -1644126785 -7405479</internalNodes>
          <leafValues>
            -2.9642009735107422e-001 3.6497780680656433e-001</leafValues></_>
        <_>
          <internalNodes>
            0 -1 195 -889535782 -226949546 -1969059073 1347552095
            1397924358 -263687168 -96273446 -754784437</internalNodes>
          <leafValues>
            -3.3958661556243896e-001 3.1961318850517273e-001</leafValues></_>
        <_>
          <internalNodes>
            0 -1 66 -538448146 -225531350 407159834 1348606694
            1383041355 -737672128 -748055986 -1051985941</internalNodes>
          <leafValues>
            -3.1951540708541870e-001 3.3633843064308167e-001</leafValues></_>
        <_>
          <internalNodes>
            0 -1 137 -637550593 -37748869 -805359811 -2883601 -269054273
            -1057238 -25170177 -321928189</internalNodes>
          <leafValues>
            -2.3977135121822357e-001 4.5164626836776733e-001</leafValues></_>
        <_>
          <internalNodes>
            0 -1 229 -302002409 -740840833 -607915167 1658845658
            -1112832 1904201020 -21978574 -209989881</internalNodes>
          <leafValues>
            -3.8381797075271606e-001 2.6620376110076904e-001</leafValues></_>
        <_>
          <internalNodes>
            0 -1 125 -1877845808 1576009878 1071462269 895631289
            338207228 -1141343753 718420728 797575178</internalNodes>
          <leafValues>
            -3.8418534398078918e-001 2.6821398735046387e-001</leafValues></_>
        <_>
          <internalNodes>
            0 -1 95 2045093337 -780890048 401534077 1494351615
            -352866912 -1661427416 -944833139 -2001994529</internalNodes>
          <leafValues>
            -2.9091730713844299e-001 3.6167407035827637e-001</leafValues></_></weakClassifiers></_>
    <!-- stage 16 -->
    <_>
      <maxWeakCount>21</maxWeakCount>
      <stageThreshold>-1.8535349369049072e+000</stageThreshold>
      <weakClassifiers>
        <_>
          <internalNodes>
            0 -1 141 -33816577 -3108508 -580597249 -573187041 1883333631
            -32896509 2080533759 -8696233</internalNodes>
          <leafValues>
            -3.9393034577369690e-001 3.4450262784957886e-001</leafValues></_>
        <_>
          <internalNodes>
            0 -1 17 -385880321 -68161537 -486543361 -134222849
            1961613307 -6145 -68231233 -8705</internalNodes>
          <leafValues>
            -2.9863506555557251e-001 4.3374586105346680e-001</leafValues></_>
        <_>
          <internalNodes>
            0 -1 90 -989861234 -671110641 -652841025 -2124945 1076364294
            -629799855 1653037567 -16300209</internalNodes>
          <leafValues>
            -3.3729344606399536e-001 3.6195257306098938e-001</leafValues></_>
        <_>
          <internalNodes>
            0 -1 52 -11141121 -791613312 77562267 -186598714 -704603359
            1012266447 588876523 -180043793</internalNodes>
          <leafValues>
            -4.3414631485939026e-001 2.6728308200836182e-001</leafValues></_>
        <_>
          <internalNodes>
            0 -1 176 -236981871 -914117757 -774643311 -1846020637
            -1147143509 -1146094965 -206597744 -205521921</internalNodes>
          <leafValues>
            -3.2383894920349121e-001 3.5790660977363586e-001</leafValues></_>
        <_>
          <internalNodes>
            0 -1 117 -67110933 25680657 -35292350 -137104193 -1221999981
            556892225 -225455649 -134752814</internalNodes>
          <leafValues>
            -3.3114331960678101e-001 3.2570785284042358e-001</leafValues></_>
        <_>
          <internalNodes>
            0 -1 44 -431231361 -326205208 -1404375301 -856788321
            -1699481345 633033419 -1125288289 -69</internalNodes>
          <leafValues>
            -3.9943608641624451e-001 2.7000591158866882e-001</leafValues></_>
        <_>
          <internalNodes>
            0 -1 219 -1060970412 -935007144 -374666313 -402199813
            -72766834 -1167417141 -70655350 -1045</internalNodes>
          <leafValues>
            -6.3901722431182861e-001 1.7053179442882538e-001</leafValues></_>
        <_>
          <internalNodes>
            0 -1 46 -360518174 -146800446 54847570 -45932478 1207969296
            -545173358 1073762369 -545832621</internalNodes>
          <leafValues>
            -4.7206735610961914e-001 2.1898320317268372e-001</leafValues></_>
        <_>
          <internalNodes>
            0 -1 122 -1042288221 -1060115575 -953694959 -806359105
            -1481330191 63174366 1431819605 -538968593</internalNodes>
          <leafValues>
            -2.4891853332519531e-001 4.3439596891403198e-001</leafValues></_>
        <_>
          <internalNodes>
            0 -1 177 1622504405 -209578193 -2129505281 -88393853
            -661786540 -293475933 1085558868 -522126083</internalNodes>
          <leafValues>
            -5.1010942459106445e-001 2.2059747576713562e-001</leafValues></_>
        <_>
          <internalNodes>
            0 -1 130 1416938608 -594496003 86259035 -1879096769
            -42956492 -85925396 237050879 789512763</internalNodes>
          <leafValues>
            -4.0139383077621460e-001 2.6479992270469666e-001</leafValues></_>
        <_>
          <internalNodes>
            0 -1 99 -598327206 1998195826 -623878916 2139049043 71568458
            -597733412 1486248894 -68458497</internalNodes>
          <leafValues>
            -3.4579357504844666e-001 3.1238773465156555e-001</leafValues></_>
        <_>
          <internalNodes>
            0 -1 169 -216014257 842213237 1614048299 -802685189
            1984423686 1346404163 -362814641 -431228161</internalNodes>
          <leafValues>
            -2.4593877792358398e-001 4.1971939802169800e-001</leafValues></_>
        <_>
          <internalNodes>
            0 -1 223 -795045680 1348337800 -244646947 433521819
            -1143295828 -54605603 -1131873046 -1433736033</internalNodes>
          <leafValues>
            -2.9400119185447693e-001 3.4137791395187378e-001</leafValues></_>
        <_>
          <internalNodes>
            0 -1 214 -17835021 -923805849 -422898640 -663301644
            1582816458 -1095780178 1711239248 -706218505</internalNodes>
          <leafValues>
            -3.6870446801185608e-001 2.9107055068016052e-001</leafValues></_>
        <_>
          <internalNodes>
            0 -1 100 771883829 -1371781220 959725055 -571151428
            -269723165 -336952068 -1681150220 -20596012</internalNodes>
          <leafValues>
            -3.6831524968147278e-001 2.8307938575744629e-001</leafValues></_>
        <_>
          <internalNodes>
            0 -1 49 -1893784779 -44973867 144233207 -585771815
            -1144505025 -1149236604 -53281835 -545242944</internalNodes>
          <leafValues>
            -4.4547531008720398e-001 2.2568890452384949e-001</leafValues></_>
        <_>
          <internalNodes>
            0 -1 31 -81795397 -606213473 -833855392 -621878538
            -510923770 1549490189 1623442951 -12062497</internalNodes>
          <leafValues>
            -3.3721429109573364e-001 3.1125286221504211e-001</leafValues></_>
        <_>
          <internalNodes>
            0 -1 173 2022571921 353628453 -648710700 -1783281447
            -2081440535 -2000692068 -2002519928 143645887</internalNodes>
          <leafValues>
            -3.2828032970428467e-001 3.1736725568771362e-001</leafValues></_>
        <_>
          <internalNodes>
            0 -1 184 -629210521 1085802074 580914386 3883231 -231260125
            -261472157 -268177681 -480248081</internalNodes>
          <leafValues>
            -3.5362884402275085e-001 2.8530296683311462e-001</leafValues></_></weakClassifiers></_>
    <!-- stage 17 -->
    <_>
      <maxWeakCount>22</maxWeakCount>
      <stageThreshold>-2.0865957736968994e+000</stageThreshold>
      <weakClassifiers>
        <_>
          <internalNodes>
            0 -1 115 -7088161 -109627429 285316375 1496806271 1897108155
            2064899363 -1761356881 -83890482</internalNodes>
          <leafValues>
            -3.7864738702774048e-001 3.9369794726371765e-001</leafValues></_>
        <_>
          <internalNodes>
            0 -1 74 -37227284 -4209492 -1152661015 -5795 -77549320
            -106086264 -844250403 -640823092</internalNodes>
          <leafValues>
            -4.5005676150321960e-001 2.8390556573867798e-001</leafValues></_>
        <_>
          <internalNodes>
            0 -1 222 -646586529 -581496673 827871577 -1692321351
            -1281169392 -200701831 -561399792 -16453</internalNodes>
          <leafValues>
            -4.0561991930007935e-001 3.0264335870742798e-001</leafValues></_>
        <_>
          <internalNodes>
            0 -1 84 -1403933793 -717225515 -1848573895 -576910283
            -2120967973 -469663726 -1160201287 -37701411</internalNodes>
          <leafValues>
            -4.4726479053497314e-001 2.6938745379447937e-001</leafValues></_>
        <_>
          <internalNodes>
            0 -1 185 -221518609 -791526253 677422699 7455421 -754714874
            1411534964 -96272961 -144441445</internalNodes>
          <leafValues>
            -3.0095672607421875e-001 3.9942657947540283e-001</leafValues></_>
        <_>
          <internalNodes>
            0 -1 65 -763176705 -70669630 -1356667921 -34855806
            1074808279 -600947346 1146186939 2063943463</internalNodes>
          <leafValues>
            -3.2495024800300598e-001 3.7638983130455017e-001</leafValues></_>
        <_>
          <internalNodes>
            0 -1 9 -549457153 2096881903 1116657394 1119084790
            -921713081 1799832661 -851183652 -263195441</internalNodes>
          <leafValues>
            -3.6918640136718750e-001 3.1283271312713623e-001</leafValues></_>
        <_>
          <internalNodes>
            0 -1 188 -136317448 -797167424 -1118578672 273764428
            -611594054 -2004733536 -80753974 1364967579</internalNodes>
          <leafValues>
            -4.2243072390556335e-001 2.6619786024093628e-001</leafValues></_>
        <_>
          <internalNodes>
            0 -1 139 2131163127 352381064 1342228753 286298384 1048763
            193532847 -209124182 2073778378</internalNodes>
          <leafValues>
            -5.4961204528808594e-001 2.0029385387897491e-001</leafValues></_>
        <_>
          <internalNodes>
            0 -1 27 -8154885 1110083202 -519844494 -1027570990
            -479200049 1079296930 -297061889 -169871473</internalNodes>
          <leafValues>
            -3.8032901287078857e-001 2.9156738519668579e-001</leafValues></_>
        <_>
          <internalNodes>
            0 -1 129 -202379134 48341122 574632192 -1052248741
            -746511568 1533958 1631842935 -1009026243</internalNodes>
          <leafValues>
            -4.2043435573577881e-001 2.6972460746765137e-001</leafValues></_>
        <_>
          <internalNodes>
            0 -1 165 318767632 288886988 355498101 890317657 649636317
            -354675032 583192239 -1146414933</internalNodes>
          <leafValues>
            -3.5075932741165161e-001 3.1615859270095825e-001</leafValues></_>
        <_>
          <internalNodes>
            0 -1 98 -954471509 -711327349 1212442113 -997882745
            1797431945 -1953068416 1930553155 1329554043</internalNodes>
          <leafValues>
            -3.5638162493705750e-001 3.0991148948669434e-001</leafValues></_>
        <_>
          <internalNodes>
            0 -1 226 -339214881 -1431351130 -1473769324 -120661464
            1900537346 502820675 -196812800 -524094573</internalNodes>
          <leafValues>
            -4.1753813624382019e-001 2.6576972007751465e-001</leafValues></_>
        <_>
          <internalNodes>
            0 -1 80 -1372012912 -936851802 -576839331 -1441759002
            -364463359 -1419825142 2144294977 -1423243761</internalNodes>
          <leafValues>
            -4.9868643283843994e-001 2.1803332865238190e-001</leafValues></_>
        <_>
          <internalNodes>
            0 -1 15 1653276667 -2070846 570433568 -607207258 1091010303
            -88774933 1682458071 -4501261</internalNodes>
          <leafValues>
            -2.9831305146217346e-001 3.8380289077758789e-001</leafValues></_>
        <_>
          <internalNodes>
            0 -1 132 1561315541 -602552107 622273547 789312671
            -619244563 -80438416 -332482246 756016939</internalNodes>
          <leafValues>
            -3.6218860745429993e-001 3.1067737936973572e-001</leafValues></_>
        <_>
          <internalNodes>
            0 -1 153 1846404400 -12636793 2146021115 -540209373
            -1091721282 -19923253 -553713777 -300964605</internalNodes>
          <leafValues>
            -3.2105183601379395e-001 3.5268422961235046e-001</leafValues></_>
        <_>
          <internalNodes>
            0 -1 91 -93329253 -211932584 2347640 1381036248 -668794872
            1082295330 -1442792757 -97854837</internalNodes>
          <leafValues>
            -3.0453288555145264e-001 3.7318035960197449e-001</leafValues></_>
        <_>
          <internalNodes>
            0 -1 206 -761393958 1407125020 -2003376385 1397293759
            -1430091094 -60996271 672307967 -617417153</internalNodes>
          <leafValues>
            -2.7945554256439209e-001 4.1992196440696716e-001</leafValues></_>
        <_>
          <internalNodes>
            0 -1 29 -152124782 1411289823 1687053531 -232463339
            1129470274 1326614688 1979997123 -548800333</internalNodes>
          <leafValues>
            -3.6695718765258789e-001 3.1464400887489319e-001</leafValues></_>
        <_>
          <internalNodes>
            0 -1 228 -203430621 1836651101 2605143 580049150 1997195362
            1735549015 -884094466 -214961857</internalNodes>
          <leafValues>
            -3.3996215462684631e-001 3.3092647790908813e-001</leafValues></_></weakClassifiers></_></stages>
  <features>
    <_>
      <rect>
        0 1 3 5</rect></_>
    <_>
      <rect>
        0 2 3 3</rect></_>
    <_>
      <rect>
        0 2 4 4</rect></_>
    <_>
      <rect>
        0 2 4 7</rect></_>
    <_>
      <rect>
        0 6 2 4</rect></_>
    <_>
      <rect>
        0 10 9 4</rect></_>
    <_>
      <rect>
        0 14 4 6</rect></_>
    <_>
      <rect>
        0 17 6 2</rect></_>
    <_>
      <rect>
        0 20 5 4</rect></_>
    <_>
      <rect>
        0 21 4 3</rect></_>
    <_>
      <rect>
        0 26 5 2</rect></_>
    <_>
      <rect>
        1 0 3 7</rect></_>
    <_>
      <rect>
        1 0 3 9</rect></_>
    <_>
      <rect>
        1 0 7 4</rect></_>
    <_>
      <rect>
        1 5 4 4</rect></_>
    <_>
      <rect>
        1 9 3 1</rect></_>
    <_>
      <rect>
        1 9 5 6</rect></_>
    <_>
      <rect>
        1 12 3 2</rect></_>
    <_>
      <rect>
        1 17 4 3</rect></_>
    <_>
      <rect>
        1 18 5 2</rect></_>
    <_>
      <rect>
        1 21 10 3</rect></_>
    <_>
      <rect>
        1 22 4 3</rect></_>
    <_>
      <rect>
        1 25 4 2</rect></_>
    <_>
      <rect>
        2 2 3 2</rect></_>
    <_>
      <rect>
        2 2 5 7</rect></_>
    <_>
      <rect>
        2 3 3 2</rect></_>
    <_>
      <rect>
        2 3 10 8</rect></_>
    <_>
      <rect>
        2 5 2 2</rect></_>
    <_>
      <rect>
        2 8 3 1</rect></_>
    <_>
      <rect>
        2 11 2 3</rect></_>
    <_>
      <rect>
        2 16 5 2</rect></_>
    <_>
      <rect>
        2 19 4 4</rect></_>
    <_>
      <rect>
        2 23 4 3</rect></_>
    <_>
      <rect>
        3 0 3 2</rect></_>
    <_>
      <rect>
        3 3 3 3</rect></_>
    <_>
      <rect>
        3 4 5 8</rect></_>
    <_>
      <rect>
        3 6 5 4</rect></_>
    <_>
      <rect>
        3 6 7 4</rect></_>
    <_>
      <rect>
        3 8 6 8</rect></_>
    <_>
      <rect>
        3 10 7 2</rect></_>
    <_>
      <rect>
        3 13 4 3</rect></_>
    <_>
      <rect>
        3 24 9 2</rect></_>
    <_>
      <rect>
        3 26 4 2</rect></_>
    <_>
      <rect>
        4 4 3 1</rect></_>
    <_>
      <rect>
        4 5 2 1</rect></_>
    <_>
      <rect>
        4 9 2 1</rect></_>
    <_>
      <rect>
        4 10 2 1</rect></_>
    <_>
      <rect>
        4 10 2 5</rect></_>
    <_>
      <rect>
        4 11 2 1</rect></_>
    <_>
      <rect>
        4 11 7 2</rect></_>
    <_>
      <rect>
        4 20 8 4</rect></_>
    <_>
      <rect>
        5 4 2 2</rect></_>
    <_>
      <rect>
        5 5 4 8</rect></_>
    <_>
      <rect>
        5 8 8 5</rect></_>
    <_>
      <rect>
        5 10 2 1</rect></_>
    <_>
      <rect>
        5 10 3 6</rect></_>
    <_>
      <rect>
        5 11 3 5</rect></_>
    <_>
      <rect>
        5 11 7 2</rect></_>
    <_>
      <rect>
        5 24 3 2</rect></_>
    <_>
      <rect>
        5 29 3 1</rect></_>
    <_>
      <rect>
        6 0 2 4</rect></_>
    <_>
      <rect>
        6 0 3 7</rect></_>
    <_>
      <rect>
        6 2 3 2</rect></_>
    <_>
      <rect>
        6 11 7 2</rect></_>
    <_>
      <rect>
        6 19 3 3</rect></_>
    <_>
      <rect>
        6 24 4 1</rect></_>
    <_>
      <rect>
        6 25 1 1</rect></_>
    <_>
      <rect>
        7 0 2 1</rect></_>
    <_>
      <rect>
        7 3 5 6</rect></_>
    <_>
      <rect>
        7 5 6 5</rect></_>
    <_>
      <rect>
        7 6 7 4</rect></_>
    <_>
      <rect>
        7 8 3 7</rect></_>
    <_>
      <rect>
        7 9 1 1</rect></_>
    <_>
      <rect>
        7 9 5 3</rect></_>
    <_>
      <rect>
        7 14 2 3</rect></_>
    <_>
      <rect>
        7 18 1 1</rect></_>
    <_>
      <rect>
        7 18 6 2</rect></_>
    <_>
      <rect>
        7 19 3 4</rect></_>
    <_>
      <rect>
        7 21 3 3</rect></_>
    <_>
      <rect>
        8 1 5 8</rect></_>
    <_>
      <rect>
        8 3 2 2</rect></_>
    <_>
      <rect>
        8 6 5 4</rect></_>
    <_>
      <rect>
        8 7 3 4</rect></_>
    <_>
      <rect>
        8 8 5 2</rect></_>
    <_>
      <rect>
        8 10 6 2</rect></_>
    <_>
      <rect>
        8 11 2 3</rect></_>
    <_>
      <rect>
        8 11 3 1</rect></_>
    <_>
      <rect>
        8 11 3 2</rect></_>
    <_>
      <rect>
        8 11 7 1</rect></_>
    <_>
      <rect>
        8 12 3 2</rect></_>
    <_>
      <rect>
        8 20 3 1</rect></_>
    <_>
      <rect>
        8 29 1 1</rect></_>
    <_>
      <rect>
        9 1 5 8</rect></_>
    <_>
      <rect>
        9 6 5 4</rect></_>
    <_>
      <rect>
        9 8 1 1</rect></_>
    <_>
      <rect>
        9 10 2 1</rect></_>
    <_>
      <rect>
        9 10 5 2</rect></_>
    <_>
      <rect>
        9 10 5 7</rect></_>
    <_>
      <rect>
        9 11 5 7</rect></_>
    <_>
      <rect>
        9 25 2 2</rect></_>
    <_>
      <rect>
        10 0 2 1</rect></_>
    <_>
      <rect>
        10 2 4 7</rect></_>
    <_>
      <rect>
        10 2 4 8</rect></_>
    <_>
      <rect>
        10 6 4 3</rect></_>
    <_>
      <rect>
        10 6 4 7</rect></_>
    <_>
      <rect>
        10 7 2 4</rect></_>
    <_>
      <rect>
        10 9 2 1</rect></_>
    <_>
      <rect>
        10 10 2 1</rect></_>
    <_>
      <rect>
        10 16 1 1</rect></_>
    <_>
      <rect>
        10 17 2 2</rect></_>
    <_>
      <rect>
        10 20 3 2</rect></_>
    <_>
      <rect>
        11 1 3 8</rect></_>
    <_>
      <rect>
        11 4 2 4</rect></_>
    <_>
      <rect>
        11 6 2 3</rect></_>
    <_>
      <rect>
        11 6 3 3</rect></_>
    <_>
      <rect>
        11 7 2 2</rect></_>
    <_>
      <rect>
        11 12 2 2</rect></_>
    <_>
      <rect>
        11 13 2 1</rect></_>
    <_>
      <rect>
        11 13 2 3</rect></_>
    <_>
      <rect>
        11 19 1 2</rect></_>
    <_>
      <rect>
        12 4 6 5</rect></_>
    <_>
      <rect>
        12 7 2 2</rect></_>
    <_>
      <rect>
        12 13 1 2</rect></_>
    <_>
      <rect>
        12 23 2 1</rect></_>
    <_>
      <rect>
        12 24 2 1</rect></_>
    <_>
      <rect>
        12 25 2 1</rect></_>
    <_>
      <rect>
        13 7 2 2</rect></_>
    <_>
      <rect>
        13 10 2 7</rect></_>
    <_>
      <rect>
        13 13 1 2</rect></_>
    <_>
      <rect>
        13 14 1 1</rect></_>
    <_>
      <rect>
        13 19 2 2</rect></_>
    <_>
      <rect>
        13 20 3 2</rect></_>
    <_>
      <rect>
        13 21 4 3</rect></_>
    <_>
      <rect>
        13 23 2 1</rect></_>
    <_>
      <rect>
        13 24 2 1</rect></_>
    <_>
      <rect>
        13 24 4 1</rect></_>
    <_>
      <rect>
        14 0 5 8</rect></_>
    <_>
      <rect>
        14 7 1 2</rect></_>
    <_>
      <rect>
        14 8 3 3</rect></_>
    <_>
      <rect>
        14 8 4 4</rect></_>
    <_>
      <rect>
        14 11 1 1</rect></_>
    <_>
      <rect>
        14 11 3 1</rect></_>
    <_>
      <rect>
        14 11 3 2</rect></_>
    <_>
      <rect>
        14 12 1 1</rect></_>
    <_>
      <rect>
        14 12 1 2</rect></_>
    <_>
      <rect>
        14 13 1 2</rect></_>
    <_>
      <rect>
        14 14 2 2</rect></_>
    <_>
      <rect>
        14 16 6 2</rect></_>
    <_>
      <rect>
        14 17 6 2</rect></_>
    <_>
      <rect>
        14 24 1 1</rect></_>
    <_>
      <rect>
        15 0 2 1</rect></_>
    <_>
      <rect>
        15 1 2 6</rect></_>
    <_>
      <rect>
        15 1 4 9</rect></_>
    <_>
      <rect>
        15 5 1 3</rect></_>
    <_>
      <rect>
        15 7 1 2</rect></_>
    <_>
      <rect>
        15 7 3 7</rect></_>
    <_>
      <rect>
        15 9 2 1</rect></_>
    <_>
      <rect>
        15 9 5 6</rect></_>
    <_>
      <rect>
        15 11 5 4</rect></_>
    <_>
      <rect>
        15 12 3 2</rect></_>
    <_>
      <rect>
        15 13 2 1</rect></_>
    <_>
      <rect>
        15 14 1 1</rect></_>
    <_>
      <rect>
        15 17 2 2</rect></_>
    <_>
      <rect>
        15 18 5 2</rect></_>
    <_>
      <rect>
        15 20 3 1</rect></_>
    <_>
      <rect>
        15 21 1 1</rect></_>
    <_>
      <rect>
        15 24 1 1</rect></_>
    <_>
      <rect>
        16 6 1 3</rect></_>
    <_>
      <rect>
        16 10 2 1</rect></_>
    <_>
      <rect>
        16 13 1 2</rect></_>
    <_>
      <rect>
        16 17 5 5</rect></_>
    <_>
      <rect>
        16 19 1 2</rect></_>
    <_>
      <rect>
        16 19 3 4</rect></_>
    <_>
      <rect>
        16 23 3 1</rect></_>
    <_>
      <rect>
        16 23 4 3</rect></_>
    <_>
      <rect>
        16 25 3 1</rect></_>
    <_>
      <rect>
        16 26 4 2</rect></_>
    <_>
      <rect>
        17 1 3 5</rect></_>
    <_>
      <rect>
        17 1 5 4</rect></_>
    <_>
      <rect>
        17 2 2 2</rect></_>
    <_>
      <rect>
        17 2 3 2</rect></_>
    <_>
      <rect>
        17 6 5 4</rect></_>
    <_>
      <rect>
        17 10 3 6</rect></_>
    <_>
      <rect>
        17 11 2 3</rect></_>
    <_>
      <rect>
        17 14 1 1</rect></_>
    <_>
      <rect>
        17 15 1 1</rect></_>
    <_>
      <rect>
        17 15 5 4</rect></_>
    <_>
      <rect>
        17 17 5 5</rect></_>
    <_>
      <rect>
        17 19 3 2</rect></_>
    <_>
      <rect>
        17 23 5 3</rect></_>
    <_>
      <rect>
        17 26 5 2</rect></_>
    <_>
      <rect>
        18 0 3 4</rect></_>
    <_>
      <rect>
        18 9 2 6</rect></_>
    <_>
      <rect>
        18 9 3 7</rect></_>
    <_>
      <rect>
        18 12 2 3</rect></_>
    <_>
      <rect>
        18 16 1 1</rect></_>
    <_>
      <rect>
        18 19 1 2</rect></_>
    <_>
      <rect>
        18 24 4 2</rect></_>
    <_>
      <rect>
        18 26 3 2</rect></_>
    <_>
      <rect>
        18 29 3 1</rect></_>
    <_>
      <rect>
        19 0 4 8</rect></_>
    <_>
      <rect>
        19 1 3 8</rect></_>
    <_>
      <rect>
        19 2 2 3</rect></_>
    <_>
      <rect>
        19 2 3 2</rect></_>
    <_>
      <rect>
        19 3 3 3</rect></_>
    <_>
      <rect>
        19 14 4 6</rect></_>
    <_>
      <rect>
        19 16 1 1</rect></_>
    <_>
      <rect>
        19 26 4 2</rect></_>
    <_>
      <rect>
        20 0 4 3</rect></_>
    <_>
      <rect>
        20 1 2 2</rect></_>
    <_>
      <rect>
        20 2 3 2</rect></_>
    <_>
      <rect>
        20 5 4 4</rect></_>
    <_>
      <rect>
        20 6 3 2</rect></_>
    <_>
      <rect>
        20 15 1 2</rect></_>
    <_>
      <rect>
        20 23 4 3</rect></_>
    <_>
      <rect>
        21 0 2 2</rect></_>
    <_>
      <rect>
        21 3 3 2</rect></_>
    <_>
      <rect>
        21 9 1 1</rect></_>
    <_>
      <rect>
        21 9 2 1</rect></_>
    <_>
      <rect>
        21 9 2 6</rect></_>
    <_>
      <rect>
        21 10 3 3</rect></_>
    <_>
      <rect>
        21 19 1 1</rect></_>
    <_>
      <rect>
        22 6 2 1</rect></_>
    <_>
      <rect>
        22 10 1 1</rect></_>
    <_>
      <rect>
        22 11 2 1</rect></_>
    <_>
      <rect>
        23 4 3 4</rect></_>
    <_>
      <rect>
        23 14 3 4</rect></_>
    <_>
      <rect>
        23 18 1 1</rect></_>
    <_>
      <rect>
        24 0 2 2</rect></_>
    <_>
      <rect>
        24 3 2 2</rect></_>
    <_>
      <rect>
        25 7 2 4</rect></_></features></cascade>
</opencv_storage>
